<?xml version="1.0"?>
<opencv_storage>
<cascade>
  <stageType>BOOST</stageType>
  <featureType>LBP</featureType>
  <height>50</height>
  <width>50</width>
  <stageParams>
    <boostType>GAB</boostType>
    <minHitRate>9.9900001287460327e-01</minHitRate>
    <maxFalseAlarm>5.0000000000000000e-01</maxFalseAlarm>
    <weightTrimRate>9.4999999999999996e-01</weightTrimRate>
    <maxDepth>1</maxDepth>
    <maxWeakCount>100</maxWeakCount></stageParams>
  <featureParams>
    <maxCatCount>256</maxCatCount>
    <featSize>1</featSize></featureParams>
  <stageNum>20</stageNum>
  <stages>
    <!-- stage 0 -->
    <_>
      <maxWeakCount>5</maxWeakCount>
      <stageThreshold>-1.2181739807128906e+00</stageThreshold>
      <weakClassifiers>
        <_>
          <internalNodes>
            0 -1 32 -2049 -676642339 -787621387 1533003253 -2113212449
            -622690081 -57999361 271730107</internalNodes>
          <leafValues>
            -8.5953176021575928e-01 5.6047701835632324e-01</leafValues></_>
        <_>
          <internalNodes>
            0 -1 37 -238821633 2076573036 -1855663649 1373096413
            -125597473 243959880 -896800517 143382703</internalNodes>
          <leafValues>
            -7.4690526723861694e-01 6.1885100603103638e-01</leafValues></_>
        <_>
          <internalNodes>
            0 -1 115 -1248822019 -44838444 -97986081 -184590055 -4398597
            -343162213 -4920641 -1078190627</internalNodes>
          <leafValues>
            -7.7052217721939087e-01 5.4870742559432983e-01</leafValues></_>
        <_>
          <internalNodes>
            0 -1 60 -35723777 -175336295 -264176539 -723717941
            -1041636881 -646411134 -64423428 -592650753</internalNodes>
          <leafValues>
            -7.2812539339065552e-01 5.4019939899444580e-01</leafValues></_>
        <_>
          <internalNodes>
            0 -1 105 -1233027841 -809376692 -805145135 2126512561
            -1199013314 -821835845 -1392462873 -556475939</internalNodes>
          <leafValues>
            -6.8582522869110107e-01 6.1858582496643066e-01</leafValues></_></weakClassifiers></_>
    <!-- stage 1 -->
    <_>
      <maxWeakCount>6</maxWeakCount>
      <stageThreshold>-1.9655935764312744e+00</stageThreshold>
      <weakClassifiers>
        <_>
          <internalNodes>
            0 -1 80 -73867780 -6433868 -1827027969 -538972123
            -1608725857 -70541031 -1825907713 -5576291</internalNodes>
          <leafValues>
            -8.4126985073089600e-01 4.7249191999435425e-01</leafValues></_>
        <_>
          <internalNodes>
            0 -1 62 -1120903685 319771592 1478054367 357552469
            -1148677697 -1966386934 -1685343253 488371705</internalNodes>
          <leafValues>
            -7.5836014747619629e-01 4.3123227357864380e-01</leafValues></_>
        <_>
          <internalNodes>
            0 -1 12 -640223233 -14989998 -771379002 2142226259
            -2088502357 -107280298 1504081659 523965683</internalNodes>
          <leafValues>
            -7.3075413703918457e-01 4.7569310665130615e-01</leafValues></_>
        <_>
          <internalNodes>
            0 -1 118 -1818599971 -83005180 1073795541 -111174759
            -1063140437 -58556205 -643771457 -1090760715</internalNodes>
          <leafValues>
            -6.8352091312408447e-01 5.6664949655532837e-01</leafValues></_>
        <_>
          <internalNodes>
            0 -1 54 -1827646209 -1245591200 -786755309 1574638033
            -83197238 -838087414 -1869896005 465287407</internalNodes>
          <leafValues>
            -5.8737033605575562e-01 5.9826338291168213e-01</leafValues></_>
        <_>
          <internalNodes>
            0 -1 7 -3486470 -3686162 119903 -1685382107 1673558156
            -618657556 1912854255 1112737404</internalNodes>
          <leafValues>
            -7.6128804683685303e-01 4.4608938694000244e-01</leafValues></_></weakClassifiers></_>
    <!-- stage 2 -->
    <_>
      <maxWeakCount>5</maxWeakCount>
      <stageThreshold>-1.1929080486297607e+00</stageThreshold>
      <weakClassifiers>
        <_>
          <internalNodes>
            0 -1 94 -1078436612 -1626080016 -245637825 -539002931
            -565280546 -608980209 -1429544193 -1074078307</internalNodes>
          <leafValues>
            -8.3700865507125854e-01 3.7905049324035645e-01</leafValues></_>
        <_>
          <internalNodes>
            0 -1 28 688783327 1367040799 956420827 1408365023 699528159
            2074825403 1392623803 998200575</internalNodes>
          <leafValues>
            -7.0064729452133179e-01 4.5381790399551392e-01</leafValues></_>
        <_>
          <internalNodes>
            0 -1 84 -1114088963 -136617547 -713990177 -713285323
            375050975 -71054405 -1134890001 -538280707</internalNodes>
          <leafValues>
            -5.8637511730194092e-01 5.5290150642395020e-01</leafValues></_>
        <_>
          <internalNodes>
            0 -1 52 -138700804 463959806 1494343928 335500753 -28974866
            -1882513151 -617547521 136042747</internalNodes>
          <leafValues>
            -7.3266583681106567e-01 4.4489905238151550e-01</leafValues></_>
        <_>
          <internalNodes>
            0 -1 125 -1195883341 -86221608 -268183565 2063503632
            -1903527265 -71663450 -340110889 -56043020</internalNodes>
          <leafValues>
            -6.2995290756225586e-01 5.1133668422698975e-01</leafValues></_></weakClassifiers></_>
    <!-- stage 3 -->
    <_>
      <maxWeakCount>7</maxWeakCount>
      <stageThreshold>-1.4350219964981079e+00</stageThreshold>
      <weakClassifiers>
        <_>
          <internalNodes>
            0 -1 51 -140846854 -70319704 -2147418005 1604043109
            -1098318182 -1699770360 -905934345 -16802821</internalNodes>
          <leafValues>
            -6.8754959106445312e-01 4.4815149903297424e-01</leafValues></_>
        <_>
          <internalNodes>
            0 -1 70 1488116991 1575752904 1695763933 1493127315
            -1157446977 -1903509370 -343221253 213439475</internalNodes>
          <leafValues>
            -7.4546444416046143e-01 3.8470676541328430e-01</leafValues></_>
        <_>
          <internalNodes>
            0 -1 114 -1129292547 -36578431 1931146271 -103416867
            -121963521 -7896957 -1215632453 -1171761795</internalNodes>
          <leafValues>
            -7.1044826507568359e-01 4.5124876499176025e-01</leafValues></_>
        <_>
          <internalNodes>
            0 -1 33 -136587538 -5121904 -1878797933 2107888792
            -1823415653 -83281912 185594303 453727479</internalNodes>
          <leafValues>
            -5.5401915311813354e-01 5.5132645368576050e-01</leafValues></_>
        <_>
          <internalNodes>
            0 -1 44 -1433813101 1469805589 -586835631 830726591
            -2045213959 919224715 847479035 452286975</internalNodes>
          <leafValues>
            -7.1205192804336548e-01 4.0775901079177856e-01</leafValues></_>
        <_>
          <internalNodes>
            0 -1 86 -1969615617 1328632204 469857427 -758247279
            -1887245779 -35681715 -1414610497 -828715595</internalNodes>
          <leafValues>
            -6.2507998943328857e-01 5.1137089729309082e-01</leafValues></_>
        <_>
          <internalNodes>
            0 -1 39 -169720578 -135720310 -587195951 1407144021
            -1584809782 235012104 -485373537 354144511</internalNodes>
          <leafValues>
            -7.5573641061782837e-01 3.9852824807167053e-01</leafValues></_></weakClassifiers></_>
    <!-- stage 4 -->
    <_>
      <maxWeakCount>6</maxWeakCount>
      <stageThreshold>-1.1386740207672119e+00</stageThreshold>
      <weakClassifiers>
        <_>
          <internalNodes>
            0 -1 66 -69576994 -3711640 1884517619 -84043311 -1226661233
            -555775821 -91039241 -86314603</internalNodes>
          <leafValues>
            -7.3798304796218872e-01 3.1550800800323486e-01</leafValues></_>
        <_>
          <internalNodes>
            0 -1 58 -1080533764 -15773248 -729567045 467622057
            -1146423798 -1422010354 -803537989 -821437929</internalNodes>
          <leafValues>
            -7.2910797595977783e-01 3.5112655162811279e-01</leafValues></_>
        <_>
          <internalNodes>
            0 -1 93 -8135492 -2136323118 1351963382 12407705 -75314977
            -830269031 -120935699 -2000882007</internalNodes>
          <leafValues>
            -7.6746135950088501e-01 3.4534099698066711e-01</leafValues></_>
        <_>
          <internalNodes>
            0 -1 40 -37228129 -640212084 -327085186 1500991809 139763407
            1502251393 302110907 972227071</internalNodes>
          <leafValues>
            -7.0672065019607544e-01 3.9833834767341614e-01</leafValues></_>
        <_>
          <internalNodes>
            0 -1 122 -1132964387 -1837018948 1434636757 1436304333
            -1449083394 -347492220 -276247825 473454841</internalNodes>
          <leafValues>
            -7.8678369522094727e-01 3.5158503055572510e-01</leafValues></_>
        <_>
          <internalNodes>
            0 -1 47 486200575 1507475808 7504923 1367318915 -1255486773
            -1886879722 -23858997 462809731</internalNodes>
          <leafValues>
            -6.4330029487609863e-01 4.2308929562568665e-01</leafValues></_></weakClassifiers></_>
    <!-- stage 5 -->
    <_>
      <maxWeakCount>6</maxWeakCount>
      <stageThreshold>-1.6805515289306641e+00</stageThreshold>
      <weakClassifiers>
        <_>
          <internalNodes>
            0 -1 106 -1625336833 -9185827 -234489059 -105027171
            -612697621 -74456355 -152120337 -54996515</internalNodes>
          <leafValues>
            -6.0412067174911499e-01 4.4609296321868896e-01</leafValues></_>
        <_>
          <internalNodes>
            0 -1 59 -83959809 -613560295 -669986431 -16983987
            -1811752170 -36466362 -608153305 -923771571</internalNodes>
          <leafValues>
            -7.1880620718002319e-01 3.7720677256584167e-01</leafValues></_>
        <_>
          <internalNodes>
            0 -1 101 -1112515330 -808905736 -993878281 -151206667
            -1869423009 -273971062 -1329401167 -1079878183</internalNodes>
          <leafValues>
            -6.8804258108139038e-01 3.8695466518402100e-01</leafValues></_>
        <_>
          <internalNodes>
            0 -1 18 181887963 -9231333 285450399 2132249435 1100088249
            -602324808 1389491585 2134861743</internalNodes>
          <leafValues>
            -5.7105410099029541e-01 4.7440555691719055e-01</leafValues></_>
        <_>
          <internalNodes>
            0 -1 23 -606865666 -709649937 -1450014658 421513270
            -32517416 436783640 -1153265157 1226564862</internalNodes>
          <leafValues>
            -6.6098773479461670e-01 4.0982183814048767e-01</leafValues></_>
        <_>
          <internalNodes>
            0 -1 104 -1128505889 -141434567 805558281 -539246327
            -1819245925 -1287403189 -939262241 -1096129244</internalNodes>
          <leafValues>
            -6.0418492555618286e-01 4.9165013432502747e-01</leafValues></_></weakClassifiers></_>
    <!-- stage 6 -->
    <_>
      <maxWeakCount>6</maxWeakCount>
      <stageThreshold>-8.3524811267852783e-01</stageThreshold>
      <weakClassifiers>
        <_>
          <internalNodes>
            0 -1 126 -140550657 -48802949 -750620225 -539631879
            -1147488001 -1328815918 -218175093 -16980611</internalNodes>
          <leafValues>
            -5.7029557228088379e-01 4.2828077077865601e-01</leafValues></_>
        <_>
          <internalNodes>
            0 -1 134 -657535070 391419334 229443357 -1458721891
            -1307856710 -1340059638 -1495602518 -1464210017</internalNodes>
          <leafValues>
            -6.5457463264465332e-01 3.8587668538093567e-01</leafValues></_>
        <_>
          <internalNodes>
            0 -1 71 2107291896 -40132036 -335380203 -81868371 -284501108
            -1956410584 696941272 -1960146627</internalNodes>
          <leafValues>
            -6.9798070192337036e-01 3.5505893826484680e-01</leafValues></_>
        <_>
          <internalNodes>
            0 -1 25 -145562370 1963831330 -1736327149 -1753095655
            -1325371167 -1190770480 805339275 1845709251</internalNodes>
          <leafValues>
            -6.3162797689437866e-01 4.0096551179885864e-01</leafValues></_>
        <_>
          <internalNodes>
            0 -1 13 341777919 -116972742 1094884146 1996976986 151295
            -1782294389 1233986327 2131457399</internalNodes>
          <leafValues>
            -6.5155035257339478e-01 3.7135493755340576e-01</leafValues></_>
        <_>
          <internalNodes>
            0 -1 111 -1085910865 -892120940 -2144123759 2082312601
            -1759727761 -1414803312 -527784267 1137200272</internalNodes>
          <leafValues>
            -6.8329405784606934e-01 4.0533030033111572e-01</leafValues></_></weakClassifiers></_>
    <!-- stage 7 -->
    <_>
      <maxWeakCount>8</maxWeakCount>
      <stageThreshold>-1.0148726701736450e+00</stageThreshold>
      <weakClassifiers>
        <_>
          <internalNodes>
            0 -1 78 -1212754182 -2125761588 -762242381 -333608547
            -644941074 -608587381 -595412525 -619022179</internalNodes>
          <leafValues>
            -7.2505092620849609e-01 2.4639768898487091e-01</leafValues></_>
        <_>
          <internalNodes>
            0 -1 96 -1078829569 -146007623 -799239777 -3411555
            -1570127905 -91235957 520272863 -5218823</internalNodes>
          <leafValues>
            -5.7638603448867798e-01 4.0832072496414185e-01</leafValues></_>
        <_>
          <internalNodes>
            0 -1 90 -235417392 1540852127 555733321 -573225059
            -204828436 -1423408507 -1995564616 -1932535471</internalNodes>
          <leafValues>
            -5.7747131586074829e-01 4.1191139817237854e-01</leafValues></_>
        <_>
          <internalNodes>
            0 -1 61 -68094784 -1534143338 1344182357 811270241
            -1684344074 -1887293240 59815934 -1996760597</internalNodes>
          <leafValues>
            -6.0909241437911987e-01 4.1970729827880859e-01</leafValues></_>
        <_>
          <internalNodes>
            0 -1 103 -1709550338 -819113584 1556518609 1955794952
            -341134770 -1056014085 1271438067 2142949073</internalNodes>
          <leafValues>
            -7.1976190805435181e-01 3.7724894285202026e-01</leafValues></_>
        <_>
          <internalNodes>
            0 -1 8 -470812737 -317816977 -1358987331 -1965818384
            1710608134 -2008940705 -134962106 -523766349</internalNodes>
          <leafValues>
            -4.9194255471229553e-01 5.2836328744888306e-01</leafValues></_>
        <_>
          <internalNodes>
            0 -1 85 -1129030414 -612214582 1481757139 1440612369
            -1247089593 -549302152 58889654 1362657293</internalNodes>
          <leafValues>
            -6.6240125894546509e-01 3.6811062693595886e-01</leafValues></_>
        <_>
          <internalNodes>
            0 -1 127 -1148491271 -208223815 -1289563773 -178371695
            1678400466 -1852731007 -1182604405 1255734685</internalNodes>
          <leafValues>
            -6.1861026287078857e-01 3.9495980739593506e-01</leafValues></_></weakClassifiers></_>
    <!-- stage 8 -->
    <_>
      <maxWeakCount>9</maxWeakCount>
      <stageThreshold>-1.3853451013565063e+00</stageThreshold>
      <weakClassifiers>
        <_>
          <internalNodes>
            0 -1 69 -46968581 1604928468 -798885547 1508895069
            -1290039105 -2020835104 -1149513285 521392511</internalNodes>
          <leafValues>
            -6.8038278818130493e-01 2.5735849142074585e-01</leafValues></_>
        <_>
          <internalNodes>
            0 -1 100 -1263449889 -892451604 -737674827 -1710208515
            -1706885526 -81354415 1067114463 406608037</internalNodes>
          <leafValues>
            -6.9969803094863892e-01 2.8996971249580383e-01</leafValues></_>
        <_>
          <internalNodes>
            0 -1 56 -1397315297 1062282777 -675250073 284874374
            -1732796181 10191549 234551515 329990655</internalNodes>
          <leafValues>
            -7.3952436447143555e-01 2.8903797268867493e-01</leafValues></_>
        <_>
          <internalNodes>
            0 -1 91 -1324295940 -1760194167 1479005051 -1477099376
            -351220967 -357558205 2072150959 481054204</internalNodes>
          <leafValues>
            -7.5694525241851807e-01 2.9821246862411499e-01</leafValues></_>
        <_>
          <internalNodes>
            0 -1 117 -1080406785 -913178447 -728641223 1924782029
            -1160070625 -70710326 715323527 2075848109</internalNodes>
          <leafValues>
            -5.4419547319412231e-01 4.2094489932060242e-01</leafValues></_>
        <_>
          <internalNodes>
            0 -1 1 -882381989 -1432178953 -207033602 -1082937604
            -2073766713 -817620108 -506341835 -748161326</internalNodes>
          <leafValues>
            -4.7325491905212402e-01 5.2643805742263794e-01</leafValues></_>
        <_>
          <internalNodes>
            0 -1 17 -151554493 -600409185 -268566688 1088606070
            -1477091579 -711100429 1575986807 -84410441</internalNodes>
          <leafValues>
            -4.6724960207939148e-01 5.5688029527664185e-01</leafValues></_>
        <_>
          <internalNodes>
            0 -1 34 -69279748 -572618752 67371015 -24208943 -984350583
            -1655987564 -993656381 402657781</internalNodes>
          <leafValues>
            -8.6078035831451416e-01 3.3663901686668396e-01</leafValues></_>
        <_>
          <internalNodes>
            0 -1 140 -209717669 -2057883833 -1208025241 -1529377233
            -218373042 123168096 -461448098 -729028361</internalNodes>
          <leafValues>
            -4.2968907952308655e-01 6.3181632757186890e-01</leafValues></_></weakClassifiers></_>
    <!-- stage 9 -->
    <_>
      <maxWeakCount>8</maxWeakCount>
      <stageThreshold>-1.0169928073883057e+00</stageThreshold>
      <weakClassifiers>
        <_>
          <internalNodes>
            0 -1 83 -1103602434 1342143428 1342287507 -152104183
            -758196146 -348454723 -1716864505 2146357661</internalNodes>
          <leafValues>
            -7.9899495840072632e-01 1.6899618506431580e-01</leafValues></_>
        <_>
          <internalNodes>
            0 -1 11 -644726530 2066697896 1478073359 -545730018
            2145473198 1229746572 -239339329 1397748447</internalNodes>
          <leafValues>
            -6.7580348253250122e-01 2.9165428876876831e-01</leafValues></_>
        <_>
          <internalNodes>
            0 -1 123 -1799856899 -74681891 -1053830049 -201428475
            -1160846658 -290749269 -495001665 1043484909</internalNodes>
          <leafValues>
            -6.9583892822265625e-01 2.8978917002677917e-01</leafValues></_>
        <_>
          <internalNodes>
            0 -1 120 1866852863 -1610137270 -603860752 -367791568
            -800851654 -1460557641 -106123833 -845952313</internalNodes>
          <leafValues>
            -5.4275631904602051e-01 4.4835075736045837e-01</leafValues></_>
        <_>
          <internalNodes>
            0 -1 14 -328377861 -1713306590 1375784658 -619623501
            95034763 -314031993 1953457095 2062763967</internalNodes>
          <leafValues>
            -5.1249277591705322e-01 4.5146834850311279e-01</leafValues></_>
        <_>
          <internalNodes>
            0 -1 130 -1667540649 1759474279 -754724673 -1283014439
            -1332165891 -626346871 -736041046 -546284607</internalNodes>
          <leafValues>
            -5.9728682041168213e-01 3.9103063941001892e-01</leafValues></_>
        <_>
          <internalNodes>
            0 -1 81 -1112051493 -940587564 -599664301 -365084451
            -763571459 -811764967 -1176225369 -5581331</internalNodes>
          <leafValues>
            -5.3355491161346436e-01 4.5234051346778870e-01</leafValues></_>
        <_>
          <internalNodes>
            0 -1 136 -644178548 -2050661797 823155613 525935261
            -982990376 791236616 -701308896 -1908410821</internalNodes>
          <leafValues>
            -5.4530274868011475e-01 4.7812500596046448e-01</leafValues></_></weakClassifiers></_>
    <!-- stage 10 -->
    <_>
      <maxWeakCount>10</maxWeakCount>
      <stageThreshold>-1.6830531358718872e+00</stageThreshold>
      <weakClassifiers>
        <_>
          <internalNodes>
            0 -1 55 -126353418 -227032119 152104962 -84031647
            -2071666430 -2137964029 -165159221 436983263</internalNodes>
          <leafValues>
            -6.5933012962341309e-01 2.4075472354888916e-01</leafValues></_>
        <_>
          <internalNodes>
            0 -1 43 363878495 1372298298 -1879031781 423352431
            -2103749969 -41186230 -1996324593 -1078201405</internalNodes>
          <leafValues>
            -4.9966406822204590e-01 4.4626742601394653e-01</leafValues></_>
        <_>
          <internalNodes>
            0 -1 6 -87104833 -791093238 -1040039915 -549303184 30228943
            -659930848 1615164023 -707438601</internalNodes>
          <leafValues>
            -4.7783663868904114e-01 4.7215700149536133e-01</leafValues></_>
        <_>
          <internalNodes>
            0 -1 79 365286333 -1599352551 -737545805 9564929 -268396053
            -392853117 -377321063 -924909613</internalNodes>
          <leafValues>
            -5.1109254360198975e-01 4.6651375293731689e-01</leafValues></_>
        <_>
          <internalNodes>
            0 -1 77 -1246135177 -406629428 -1329425261 -319330415
            -1190470962 -1050941917 19593622 -704491291</internalNodes>
          <leafValues>
            -5.4752385616302490e-01 3.9169031381607056e-01</leafValues></_>
        <_>
          <internalNodes>
            0 -1 148 -210270973 -1974295885 1090748475 1081033423
            -933051071 1099364371 1624990373 1894775291</internalNodes>
          <leafValues>
            -4.9295040965080261e-01 4.7552016377449036e-01</leafValues></_>
        <_>
          <internalNodes>
            0 -1 116 -740134085 -615431417 -661584811 -1674945912
            -2113153313 -1115651413 780283991 -185952999</internalNodes>
          <leafValues>
            -4.9513706564903259e-01 4.9349352717399597e-01</leafValues></_>
        <_>
          <internalNodes>
            0 -1 22 -290719026 -214789980 -787214226 -1881781235
            -1463328006 673162798 -549102194 1106746588</internalNodes>
          <leafValues>
            -6.4405620098114014e-01 3.4470924735069275e-01</leafValues></_>
        <_>
          <internalNodes>
            0 -1 38 -13025156 -192629284 -1073671675 445620234
            -1691638119 1007256115 -218048373 2048606979</internalNodes>
          <leafValues>
            -5.6619262695312500e-01 4.2914402484893799e-01</leafValues></_>
        <_>
          <internalNodes>
            0 -1 110 -1214757678 -338622856 -402648157 -670076428
            -1384474349 -1996287326 -231157881 -1163372091</internalNodes>
          <leafValues>
            -7.4584859609603882e-01 3.0350083112716675e-01</leafValues></_></weakClassifiers></_>
    <!-- stage 11 -->
    <_>
      <maxWeakCount>9</maxWeakCount>
      <stageThreshold>-1.5680541992187500e+00</stageThreshold>
      <weakClassifiers>
        <_>
          <internalNodes>
            0 -1 50 -1781344065 430675262 -1056901825 1509929823
            -1192647749 65064960 -203826513 536080871</internalNodes>
          <leafValues>
            -6.5551179647445679e-01 2.1861152350902557e-01</leafValues></_>
        <_>
          <internalNodes>
            0 -1 4 -492837049 -2042305910 -1869527981 -1060705054
            1347924486 -1970961405 1431687168 -193465241</internalNodes>
          <leafValues>
            -4.7663745284080505e-01 4.2189770936965942e-01</leafValues></_>
        <_>
          <internalNodes>
            0 -1 72 -202971169 -510338313 98304 -137889307 -251477887
            -519294775 -775634919 412617193</internalNodes>
          <leafValues>
            -8.4368795156478882e-01 2.4453634023666382e-01</leafValues></_>
        <_>
          <internalNodes>
            0 -1 149 -151017952 1644656651 -1073639420 574630466
            1666152768 537053227 1353042436 -1058539569</internalNodes>
          <leafValues>
            -6.4229536056518555e-01 3.2864084839820862e-01</leafValues></_>
        <_>
          <internalNodes>
            0 -1 102 -1165339394 -1046399272 -1701783822 1921344600
            -1325859793 -285089523 -1534925387 2099929593</internalNodes>
          <leafValues>
            -7.0794582366943359e-01 3.1635308265686035e-01</leafValues></_>
        <_>
          <internalNodes>
            0 -1 145 -1405427849 -1901085063 -1887439170 -1983959833
            -1108873561 -1896878081 -437406300 -1032849689</internalNodes>
          <leafValues>
            -4.3976214528083801e-01 5.1977795362472534e-01</leafValues></_>
        <_>
          <internalNodes>
            0 -1 113 7361615 463471052 50628705 165004737 1086334535
            630170019 -1475732850 -1696210041</internalNodes>
          <leafValues>
            -6.2205767631530762e-01 3.6361026763916016e-01</leafValues></_>
        <_>
          <internalNodes>
            0 -1 21 -2117140481 -950253502 1099023645 -995436798
            -1056713825 204883980 1099104499 1162199381</internalNodes>
          <leafValues>
            -5.8564352989196777e-01 4.1196215152740479e-01</leafValues></_>
        <_>
          <internalNodes>
            0 -1 15 -320909393 -326713554 1828712434 1656684004
            -37798142 -884936890 -59349209 -218105733</internalNodes>
          <leafValues>
            -4.4106322526931763e-01 5.4810237884521484e-01</leafValues></_></weakClassifiers></_>
    <!-- stage 12 -->
    <_>
      <maxWeakCount>8</maxWeakCount>
      <stageThreshold>-9.8062682151794434e-01</stageThreshold>
      <weakClassifiers>
        <_>
          <internalNodes>
            0 -1 97 -570435081 -537225508 -805070157 -623318157
            -1816937985 -74743013 -1431325979 -1346709319</internalNodes>
          <leafValues>
            -5.1523947715759277e-01 3.4274193644523621e-01</leafValues></_>
        <_>
          <internalNodes>
            0 -1 68 1915810527 1370165654 1366647131 1526330649
            -1584864096 -1526168494 -697894501 194114557</internalNodes>
          <leafValues>
            -5.7465934753417969e-01 3.3360221982002258e-01</leafValues></_>
        <_>
          <internalNodes>
            0 -1 75 -1145545474 569000648 -805231981 297351173 -32577010
            25413771 -1337535565 169529533</internalNodes>
          <leafValues>
            -8.2401096820831299e-01 2.2216238081455231e-01</leafValues></_>
        <_>
          <internalNodes>
            0 -1 5 -673783969 -82316168 67633154 -615016046 -2096861297
            -1055227708 -1878489846 843923699</internalNodes>
          <leafValues>
            -5.4491525888442993e-01 3.8226446509361267e-01</leafValues></_>
        <_>
          <internalNodes>
            0 -1 89 -204235248 -1223974704 1640172305 1800614345
            -2087984508 705364226 -616387590 -1944016631</internalNodes>
          <leafValues>
            -5.6819450855255127e-01 3.7666833400726318e-01</leafValues></_>
        <_>
          <internalNodes>
            0 -1 121 -1200435702 425135143 1690879033 463317765
            1375977714 270925955 -1677509965 -1148353822</internalNodes>
          <leafValues>
            -5.4914671182632446e-01 3.8400289416313171e-01</leafValues></_>
        <_>
          <internalNodes>
            0 -1 27 -1035737153 -743660986 -800862192 -872220342
            1350823943 -1873526625 834896944 -235538109</internalNodes>
          <leafValues>
            -4.9594122171401978e-01 4.6929761767387390e-01</leafValues></_>
        <_>
          <internalNodes>
            0 -1 82 -1311320848 1008427281 1145213263 1401114949
            -1374500149 -1106280189 1213889323 -1996871207</internalNodes>
          <leafValues>
            -6.1136156320571899e-01 3.9805796742439270e-01</leafValues></_></weakClassifiers></_>
    <!-- stage 13 -->
    <_>
      <maxWeakCount>8</maxWeakCount>
      <stageThreshold>-1.0837252140045166e+00</stageThreshold>
      <weakClassifiers>
        <_>
          <internalNodes>
            0 -1 45 -179832126 -581663486 -880637643 -118446206
            -1153178452 -821542911 -1180780242 -1679820402</internalNodes>
          <leafValues>
            -5.3976833820343018e-01 3.0604651570320129e-01</leafValues></_>
        <_>
          <internalNodes>
            0 -1 19 1236757599 2001748766 1099295678 2073531250
            1077953805 383854635 1761762583 2134587186</internalNodes>
          <leafValues>
            -5.8019596338272095e-01 3.3387982845306396e-01</leafValues></_>
        <_>
          <internalNodes>
            0 -1 65 -237677369 -274508606 -45015374 274141525 -258753269
            -1886330807 -259984709 1270407586</internalNodes>
          <leafValues>
            -5.3782171010971069e-01 3.5135480761528015e-01</leafValues></_>
        <_>
          <internalNodes>
            0 -1 115 -1791223811 -247136288 1612300583 1958682765
            -1003865284 -1048492032 -1191144757 -625992195</internalNodes>
          <leafValues>
            -6.9214993715286255e-01 3.2017138600349426e-01</leafValues></_>
        <_>
          <internalNodes>
            0 -1 150 -321913329 1120899351 -330203124 214221318
            -712788892 1611180033 -1022246157 1441264623</internalNodes>
          <leafValues>
            -5.6445509195327759e-01 3.8181599974632263e-01</leafValues></_>
        <_>
          <internalNodes>
            0 -1 137 -1714367140 -2011803626 -1817882358 -2139003711
            -78918582 -1008082847 -439693079 -1897993273</internalNodes>
          <leafValues>
            -6.0796809196472168e-01 3.5506129264831543e-01</leafValues></_>
        <_>
          <internalNodes>
            0 -1 3 -577985793 -1310023222 134254999 -513671166
            -1065336741 -616397696 -247432733 1433757155</internalNodes>
          <leafValues>
            -5.7901537418365479e-01 3.7935987114906311e-01</leafValues></_>
        <_>
          <internalNodes>
            0 -1 20 -35726450 -758609692 -1056243577 -111128440
            269125807 9568896 -796426144 -150940432</internalNodes>
          <leafValues>
            -8.4817546606063843e-01 2.6812592148780823e-01</leafValues></_></weakClassifiers></_>
    <!-- stage 14 -->
    <_>
      <maxWeakCount>8</maxWeakCount>
      <stageThreshold>-1.0737874507904053e+00</stageThreshold>
      <weakClassifiers>
        <_>
          <internalNodes>
            0 -1 135 -1136348526 383221958 -2142141139 990717457
            -750287446 9601168 -2092161877 -1984044373</internalNodes>
          <leafValues>
            -6.4313727617263794e-01 2.1185185015201569e-01</leafValues></_>
        <_>
          <internalNodes>
            0 -1 138 -320865156 1208787008 -536645608 -173602787
            -1073233853 134316128 -1760867220 139134191</internalNodes>
          <leafValues>
            -6.1249101161956787e-01 2.8168952465057373e-01</leafValues></_>
        <_>
          <internalNodes>
            0 -1 109 -1078963975 -661643192 1099819487 2051539213
            -1651836258 -1445406572 -1689726209 966285805</internalNodes>
          <leafValues>
            -6.8386667966842651e-01 2.6871374249458313e-01</leafValues></_>
        <_>
          <internalNodes>
            0 -1 142 -181404750 -1728641014 -1360085025 1958590183
            1587845666 981396454 79274635 -2117865949</internalNodes>
          <leafValues>
            -3.6907044053077698e-01 5.8143478631973267e-01</leafValues></_>
        <_>
          <internalNodes>
            0 -1 24 -413159449 -1461260826 -906298253 -194969942
            -281561225 1298460479 -462629311 -531114313</internalNodes>
          <leafValues>
            -4.2986491322517395e-01 4.9656474590301514e-01</leafValues></_>
        <_>
          <internalNodes>
            0 -1 49 -1847929826 394739884 -1844037325 490062121
            -1283288385 -1971154290 -1583300471 504570009</internalNodes>
          <leafValues>
            -6.6541790962219238e-01 3.1705549359321594e-01</leafValues></_>
        <_>
          <internalNodes>
            0 -1 36 -458823938 1017545032 -1053556396 -70087844
            1216402174 -917995510 -1055973221 1105529968</internalNodes>
          <leafValues>
            -7.1181875467300415e-01 2.9476332664489746e-01</leafValues></_>
        <_>
          <internalNodes>
            0 -1 67 633062143 1968544561 -989838948 1888586331 833110102
            1519517824 -1425284131 312197626</internalNodes>
          <leafValues>
            -6.0678333044052124e-01 3.4012946486473083e-01</leafValues></_></weakClassifiers></_>
    <!-- stage 15 -->
    <_>
      <maxWeakCount>9</maxWeakCount>
      <stageThreshold>-9.7511476278305054e-01</stageThreshold>
      <weakClassifiers>
        <_>
          <internalNodes>
            0 -1 119 1060785151 -116932583 424896887 -1113996655
            -150806085 -1139715813 -1077743889 -46521911</internalNodes>
          <leafValues>
            -4.9892628192901611e-01 3.3607399463653564e-01</leafValues></_>
        <_>
          <internalNodes>
            0 -1 153 -272636381 -2144945501 -1100443904 -1599081734
            -1351484160 1962340343 -951612128 -487066521</internalNodes>
          <leafValues>
            -4.0245991945266724e-01 4.4452124834060669e-01</leafValues></_>
        <_>
          <internalNodes>
            0 -1 57 -1433531493 -34139623 1073684031 -268741257
            254864059 -1216641102 402542845 -67145537</internalNodes>
          <leafValues>
            -4.0568974614143372e-01 4.9016699194908142e-01</leafValues></_>
        <_>
          <internalNodes>
            0 -1 87 -1302735105 -505982515 -1841200809 -1065626727
            -1717464661 197886090 -878933337 -1631794708</internalNodes>
          <leafValues>
            -5.0332278013229370e-01 4.0793776512145996e-01</leafValues></_>
        <_>
          <internalNodes>
            0 -1 46 -486404898 -779693884 86655 279565008 -2106457173
            -1566371041 741413802 1729483253</internalNodes>
          <leafValues>
            -5.7238423824310303e-01 3.8893091678619385e-01</leafValues></_>
        <_>
          <internalNodes>
            0 -1 143 -476603886 -489330044 536973405 -742324594
            403677746 134451776 51948038 1142940975</internalNodes>
          <leafValues>
            -4.9229824542999268e-01 4.5179247856140137e-01</leafValues></_>
        <_>
          <internalNodes>
            0 -1 112 1340068504 -944728877 1208029497 1368772889
            -1030360695 -1207238169 1618894488 -1945776625</internalNodes>
          <leafValues>
            -5.4103368520736694e-01 4.1095098853111267e-01</leafValues></_>
        <_>
          <internalNodes>
            0 -1 31 -824195473 -858874719 -1073621049 -402301684
            -787643904 1078564098 -1065121613 -1524141037</internalNodes>
          <leafValues>
            -5.6401032209396362e-01 3.9422994852066040e-01</leafValues></_>
        <_>
          <internalNodes>
            0 -1 107 817026550 882213331 -737976967 462950800 1170260708
            -1874853878 -1971271633 -1663512441</internalNodes>
          <leafValues>
            -5.9842222929000854e-01 3.7112277746200562e-01</leafValues></_></weakClassifiers></_>
    <!-- stage 16 -->
    <_>
      <maxWeakCount>9</maxWeakCount>
      <stageThreshold>-1.3292932510375977e+00</stageThreshold>
      <weakClassifiers>
        <_>
          <internalNodes>
            0 -1 35 -2109218617 -1061107456 1346994768 -850730872
            -2008291075 -1943895464 1132843136 -839401263</internalNodes>
          <leafValues>
            -5.1713860034942627e-01 3.1517508625984192e-01</leafValues></_>
        <_>
          <internalNodes>
            0 -1 73 -1198499074 -935173978 -1593732967 635060245
            -239408314 -1744133190 1116072875 237569257</internalNodes>
          <leafValues>
            -6.7248922586441040e-01 2.6522868871688843e-01</leafValues></_>
        <_>
          <internalNodes>
            0 -1 124 -2070655986 303313188 2072189760 193831721
            -759070274 2001772672 2039081660 -140713514</internalNodes>
          <leafValues>
            -6.1096221208572388e-01 3.0244654417037964e-01</leafValues></_>
        <_>
          <internalNodes>
            0 -1 16 -754630249 839930118 1343242683 -666693478
            2097817137 436258899 1225410596 1936945762</internalNodes>
          <leafValues>
            -5.6349182128906250e-01 3.7965869903564453e-01</leafValues></_>
        <_>
          <internalNodes>
            0 -1 139 -2020350469 454058023 85508316 -548539648 826384815
            160448929 1502696176 82310551</internalNodes>
          <leafValues>
            -5.1461112499237061e-01 3.9431455731391907e-01</leafValues></_>
        <_>
          <internalNodes>
            0 -1 0 1908932259 -299455516 268151962 -171512284 -805579779
            -1801003526 635081922 -542122094</internalNodes>
          <leafValues>
            -4.1319364309310913e-01 5.4070675373077393e-01</leafValues></_>
        <_>
          <internalNodes>
            0 -1 98 -1039047023 -1056827050 -2105538277 -795279303
            -1954503670 -330596326 58974704 791317737</internalNodes>
          <leafValues>
            -5.5527424812316895e-01 3.9470475912094116e-01</leafValues></_>
        <_>
          <internalNodes>
            0 -1 30 -716106608 -1686040541 -1052372990 -1919303388
            -2113395833 304814233 -719269725 1024151945</internalNodes>
          <leafValues>
            -6.4880597591400146e-01 3.9265033602714539e-01</leafValues></_>
        <_>
          <internalNodes>
            0 -1 29 17294193 -1054044158 270319892 -1178140530
            -1059487647 1136660483 1242253312 -274692800</internalNodes>
          <leafValues>
            -5.8150404691696167e-01 3.7655887007713318e-01</leafValues></_></weakClassifiers></_>
    <!-- stage 17 -->
    <_>
      <maxWeakCount>10</maxWeakCount>
      <stageThreshold>-1.0215986967086792e+00</stageThreshold>
      <weakClassifiers>
        <_>
          <internalNodes>
            0 -1 108 -1296410509 1641005754 -1605774893 6340995
            -490282817 -73895269 -1472087565 143310901</internalNodes>
          <leafValues>
            -7.0438796281814575e-01 1.5957446396350861e-01</leafValues></_>
        <_>
          <internalNodes>
            0 -1 41 -1625575750 2063321604 -985538249 -1572240845
            -1375491846 -326598450 -349538021 990798914</internalNodes>
          <leafValues>
            -4.9996000528335571e-01 3.7931498885154724e-01</leafValues></_>
        <_>
          <internalNodes>
            0 -1 95 -1727505928 -545042408 -2130521643 -1144889188
            -2105477062 -100417525 559069843 419978733</internalNodes>
          <leafValues>
            -7.8085815906524658e-01 2.4100770056247711e-01</leafValues></_>
        <_>
          <internalNodes>
            0 -1 9 -497816898 -213851666 1130614 -528182446 -2147121865
            -652524928 -1006288827 -731618398</internalNodes>
          <leafValues>
            -5.2653616666793823e-01 3.8781267404556274e-01</leafValues></_>
        <_>
          <internalNodes>
            0 -1 128 -885833133 53745971 2123131647 1495758807
            -268490789 -2064189441 1837071775 -1079052833</internalNodes>
          <leafValues>
            -3.1247976422309875e-01 6.6310912370681763e-01</leafValues></_>
        <_>
          <internalNodes>
            0 -1 42 -43477945 -189234173 268435983 1554518023
            -1034943217 -1476377590 -218070517 -91740928</internalNodes>
          <leafValues>
            -6.3899832963943481e-01 3.2688918709754944e-01</leafValues></_>
        <_>
          <internalNodes>
            0 -1 64 -608673801 -352324226 1995373811 -748537605
            -1073939105 -1820525487 300873201 -763062025</internalNodes>
          <leafValues>
            -4.3690890073776245e-01 5.1268178224563599e-01</leafValues></_>
        <_>
          <internalNodes>
            0 -1 146 -1865982897 -531606770 67174538 283701251
            1242480643 402788363 -1860779664 -769464742</internalNodes>
          <leafValues>
            -5.1971185207366943e-01 4.6387881040573120e-01</leafValues></_>
        <_>
          <internalNodes>
            0 -1 48 -2013082339 2140242012 -2122252087 1372407889
            -1924628218 -1635548950 143132867 181330249</internalNodes>
          <leafValues>
            -5.8899939060211182e-01 3.7709635496139526e-01</leafValues></_>
        <_>
          <internalNodes>
            0 -1 74 -660646696 -217890302 -1358884585 -260009214
            -145309335 811698700 -1048427091 523718316</internalNodes>
          <leafValues>
            -5.8582258224487305e-01 4.1676360368728638e-01</leafValues></_></weakClassifiers></_>
    <!-- stage 18 -->
    <_>
      <maxWeakCount>8</maxWeakCount>
      <stageThreshold>-1.2779752016067505e+00</stageThreshold>
      <weakClassifiers>
        <_>
          <internalNodes>
            0 -1 133 -1952506881 -1505026021 -1877987175 541549451
            -1604507581 -107117520 -1268188229 -1402290963</internalNodes>
          <leafValues>
            -5.2133041620254517e-01 3.5562309622764587e-01</leafValues></_>
        <_>
          <internalNodes>
            0 -1 63 -149008162 -370316931 537231833 409168089 1393003074
            -750711259 -2079660853 228296745</internalNodes>
          <leafValues>
            -5.9936970472335815e-01 3.3427107334136963e-01</leafValues></_>
        <_>
          <internalNodes>
            0 -1 141 -1152401659 286864723 -127171 864530223 -8401404
            1289649933 -864219634 -454375573</internalNodes>
          <leafValues>
            -4.3996950984001160e-01 4.7051230072975159e-01</leafValues></_>
        <_>
          <internalNodes>
            0 -1 151 -898642157 -499597534 -30 1789048373 -269107583
            1584905596 1065184347 -738009986</internalNodes>
          <leafValues>
            -3.6059564352035522e-01 5.8877253532409668e-01</leafValues></_>
        <_>
          <internalNodes>
            0 -1 99 -1803332387 -872267640 890886499 -1820798744
            -1711150581 -1979133948 185132019 486559961</internalNodes>
          <leafValues>
            -6.1398494243621826e-01 4.0283608436584473e-01</leafValues></_>
        <_>
          <internalNodes>
            0 -1 152 -428083193 -68010257 548954721 1617355832
            -671482601 -847380494 -595635930 -245408537</internalNodes>
          <leafValues>
            -4.2483356595039368e-01 5.4707688093185425e-01</leafValues></_>
        <_>
          <internalNodes>
            0 -1 92 -1088917005 -1828355772 339165633 2122842429
            541201094 -912777216 153804707 -637006643</internalNodes>
          <leafValues>
            -4.9150988459587097e-01 4.8214817047119141e-01</leafValues></_>
        <_>
          <internalNodes>
            0 -1 10 -653319969 -79650494 1544571098 270565380 1166089137
            -1576921470 -796815148 1986465971</internalNodes>
          <leafValues>
            -6.3063788414001465e-01 3.6242815852165222e-01</leafValues></_></weakClassifiers></_>
    <!-- stage 19 -->
    <_>
      <maxWeakCount>10</maxWeakCount>
      <stageThreshold>-1.3719620704650879e+00</stageThreshold>
      <weakClassifiers>
        <_>
          <internalNodes>
            0 -1 88 -1338848033 -741141567 -1341865529 -313564255
            -2091465889 -1819180893 -2092125461 2134563589</internalNodes>
          <leafValues>
            -5.5875301361083984e-01 2.9401251673698425e-01</leafValues></_>
        <_>
          <internalNodes>
            0 -1 2 -307757293 -1994326042 -471390361 -1314525340
            -717361383 1824055269 -195478475 -778570649</internalNodes>
          <leafValues>
            -3.6699435114860535e-01 5.5550885200500488e-01</leafValues></_>
        <_>
          <internalNodes>
            0 -1 132 -738460899 1171611415 2076046705 537155406
            -16792355 507608630 -591593800 -525225281</internalNodes>
          <leafValues>
            -3.7273061275482178e-01 5.5802965164184570e-01</leafValues></_>
        <_>
          <internalNodes>
            0 -1 147 -1991524929 -1592647670 285229655 -1434197255
            -888941339 620861824 76798144 -1024991100</internalNodes>
          <leafValues>
            -5.1122802495956421e-01 4.4860196113586426e-01</leafValues></_>
        <_>
          <internalNodes>
            0 -1 76 -753658472 1392746544 -1609529971 991416769
            -515721542 -900718057 -641211972 -1999183013</internalNodes>
          <leafValues>
            -5.2822834253311157e-01 4.0386375784873962e-01</leafValues></_>
        <_>
          <internalNodes>
            0 -1 131 985750687 -1856958311 1078038555 123928603
            -771704409 -87490432 -1073036119 -13046375</internalNodes>
          <leafValues>
            -4.9082884192466736e-01 4.8403629660606384e-01</leafValues></_>
        <_>
          <internalNodes>
            0 -1 53 1216566474 -759043312 18153616 1145700417 -333209590
            1141426186 404988835 438621893</internalNodes>
          <leafValues>
            -6.4758533239364624e-01 3.6187067627906799e-01</leafValues></_>
        <_>
          <internalNodes>
            0 -1 144 -161791985 -1705487582 134238282 -91372653 21827908
            1478656018 -1303861116 -449668322</internalNodes>
          <leafValues>
            -5.3542238473892212e-01 4.6775108575820923e-01</leafValues></_>
        <_>
          <internalNodes>
            0 -1 129 -796863778 1611685968 272756864 -1071480766
            536936704 -805240831 -1342013424 482050238</internalNodes>
          <leafValues>
            -6.4241707324981689e-01 3.9659866690635681e-01</leafValues></_>
        <_>
          <internalNodes>
            0 -1 26 -984751893 -931073210 1367541785 -1199005694
            -933256401 -1466826742 -528053853 -168714238</internalNodes>
          <leafValues>
            -5.0165081024169922e-01 4.9750110507011414e-01</leafValues></_></weakClassifiers></_></stages>
  <features>
    <_>
      <rect>
        0 4 5 2</rect></_>
    <_>
      <rect>
        0 9 5 4</rect></_>
    <_>
      <rect>
        0 11 2 3</rect></_>
    <_>
      <rect>
        0 12 6 4</rect></_>
    <_>
      <rect>
        0 13 3 3</rect></_>
    <_>
      <rect>
        0 13 16 12</rect></_>
    <_>
      <rect>
        0 14 6 4</rect></_>
    <_>
      <rect>
        0 15 11 4</rect></_>
    <_>
      <rect>
        0 16 3 2</rect></_>
    <_>
      <rect>
        0 18 4 3</rect></_>
    <_>
      <rect>
        0 18 8 2</rect></_>
    <_>
      <rect>
        0 18 13 3</rect></_>
    <_>
      <rect>
        0 20 12 10</rect></_>
    <_>
      <rect>
        0 28 10 7</rect></_>
    <_>
      <rect>
        0 28 12 6</rect></_>
    <_>
      <rect>
        0 30 1 1</rect></_>
    <_>
      <rect>
        0 31 7 4</rect></_>
    <_>
      <rect>
        0 32 1 1</rect></_>
    <_>
      <rect>
        0 32 13 6</rect></_>
    <_>
      <rect>
        0 33 6 5</rect></_>
    <_>
      <rect>
        1 3 11 13</rect></_>
    <_>
      <rect>
        1 5 7 3</rect></_>
    <_>
      <rect>
        1 7 14 6</rect></_>
    <_>
      <rect>
        1 11 16 5</rect></_>
    <_>
      <rect>
        1 15 2 2</rect></_>
    <_>
      <rect>
        1 16 12 5</rect></_>
    <_>
      <rect>
        1 17 3 2</rect></_>
    <_>
      <rect>
        1 20 3 2</rect></_>
    <_>
      <rect>
        1 29 16 7</rect></_>
    <_>
      <rect>
        2 3 2 6</rect></_>
    <_>
      <rect>
        2 12 12 6</rect></_>
    <_>
      <rect>
        2 18 2 1</rect></_>
    <_>
      <rect>
        2 20 16 10</rect></_>
    <_>
      <rect>
        3 9 9 6</rect></_>
    <_>
      <rect>
        3 19 11 8</rect></_>
    <_>
      <rect>
        4 1 4 4</rect></_>
    <_>
      <rect>
        4 9 10 3</rect></_>
    <_>
      <rect>
        5 14 14 4</rect></_>
    <_>
      <rect>
        5 17 9 4</rect></_>
    <_>
      <rect>
        5 17 12 3</rect></_>
    <_>
      <rect>
        5 23 13 9</rect></_>
    <_>
      <rect>
        7 1 13 6</rect></_>
    <_>
      <rect>
        7 11 13 9</rect></_>
    <_>
      <rect>
        7 17 12 5</rect></_>
    <_>
      <rect>
        7 29 14 7</rect></_>
    <_>
      <rect>
        9 1 13 8</rect></_>
    <_>
      <rect>
        9 11 5 4</rect></_>
    <_>
      <rect>
        9 18 12 4</rect></_>
    <_>
      <rect>
        9 33 13 5</rect></_>
    <_>
      <rect>
        10 15 10 5</rect></_>
    <_>
      <rect>
        10 16 12 4</rect></_>
    <_>
      <rect>
        10 20 9 4</rect></_>
    <_>
      <rect>
        11 13 11 4</rect></_>
    <_>
      <rect>
        11 16 5 2</rect></_>
    <_>
      <rect>
        11 19 10 4</rect></_>
    <_>
      <rect>
        11 19 13 10</rect></_>
    <_>
      <rect>
        11 29 13 7</rect></_>
    <_>
      <rect>
        11 37 8 4</rect></_>
    <_>
      <rect>
        12 20 8 3</rect></_>
    <_>
      <rect>
        13 1 9 15</rect></_>
    <_>
      <rect>
        13 2 10 14</rect></_>
    <_>
      <rect>
        13 12 12 4</rect></_>
    <_>
      <rect>
        13 15 9 4</rect></_>
    <_>
      <rect>
        13 16 6 3</rect></_>
    <_>
      <rect>
        13 20 6 1</rect></_>
    <_>
      <rect>
        13 22 8 1</rect></_>
    <_>
      <rect>
        13 23 8 3</rect></_>
    <_>
      <rect>
        13 28 12 6</rect></_>
    <_>
      <rect>
        14 11 11 6</rect></_>
    <_>
      <rect>
        14 13 9 5</rect></_>
    <_>
      <rect>
        14 16 10 5</rect></_>
    <_>
      <rect>
        15 3 7 6</rect></_>
    <_>
      <rect>
        15 17 8 11</rect></_>
    <_>
      <rect>
        15 19 6 2</rect></_>
    <_>
      <rect>
        16 2 10 8</rect></_>
    <_>
      <rect>
        16 21 6 2</rect></_>
    <_>
      <rect>
        17 11 10 4</rect></_>
    <_>
      <rect>
        17 23 3 1</rect></_>
    <_>
      <rect>
        17 24 5 2</rect></_>
    <_>
      <rect>
        18 17 8 2</rect></_>
    <_>
      <rect>
        18 20 4 5</rect></_>
    <_>
      <rect>
        18 25 2 1</rect></_>
    <_>
      <rect>
        19 11 5 4</rect></_>
    <_>
      <rect>
        19 23 5 2</rect></_>
    <_>
      <rect>
        19 24 1 1</rect></_>
    <_>
      <rect>
        20 21 3 1</rect></_>
    <_>
      <rect>
        20 25 3 1</rect></_>
    <_>
      <rect>
        20 26 2 1</rect></_>
    <_>
      <rect>
        20 28 1 1</rect></_>
    <_>
      <rect>
        21 5 8 4</rect></_>
    <_>
      <rect>
        21 5 8 5</rect></_>
    <_>
      <rect>
        21 7 4 4</rect></_>
    <_>
      <rect>
        21 11 2 1</rect></_>
    <_>
      <rect>
        21 16 7 2</rect></_>
    <_>
      <rect>
        21 21 4 3</rect></_>
    <_>
      <rect>
        21 22 1 1</rect></_>
    <_>
      <rect>
        21 23 1 1</rect></_>
    <_>
      <rect>
        21 27 2 1</rect></_>
    <_>
      <rect>
        21 28 3 1</rect></_>
    <_>
      <rect>
        22 21 3 1</rect></_>
    <_>
      <rect>
        22 22 2 1</rect></_>
    <_>
      <rect>
        22 23 2 1</rect></_>
    <_>
      <rect>
        22 23 3 1</rect></_>
    <_>
      <rect>
        22 24 3 1</rect></_>
    <_>
      <rect>
        22 25 1 1</rect></_>
    <_>
      <rect>
        22 25 2 1</rect></_>
    <_>
      <rect>
        22 26 1 1</rect></_>
    <_>
      <rect>
        23 16 8 4</rect></_>
    <_>
      <rect>
        23 18 4 2</rect></_>
    <_>
      <rect>
        23 21 1 1</rect></_>
    <_>
      <rect>
        23 25 2 1</rect></_>
    <_>
      <rect>
        23 25 3 1</rect></_>
    <_>
      <rect>
        24 8 8 4</rect></_>
    <_>
      <rect>
        24 20 7 3</rect></_>
    <_>
      <rect>
        24 23 1 1</rect></_>
    <_>
      <rect>
        24 24 1 1</rect></_>
    <_>
      <rect>
        24 27 2 1</rect></_>
    <_>
      <rect>
        25 24 2 1</rect></_>
    <_>
      <rect>
        25 25 1 1</rect></_>
    <_>
      <rect>
        26 11 1 1</rect></_>
    <_>
      <rect>
        26 19 6 1</rect></_>
    <_>
      <rect>
        26 19 8 4</rect></_>
    <_>
      <rect>
        26 21 1 1</rect></_>
    <_>
      <rect>
        26 23 1 1</rect></_>
    <_>
      <rect>
        27 20 7 3</rect></_>
    <_>
      <rect>
        27 24 2 1</rect></_>
    <_>
      <rect>
        27 26 1 1</rect></_>
    <_>
      <rect>
        27 27 1 1</rect></_>
    <_>
      <rect>
        27 44 6 2</rect></_>
    <_>
      <rect>
        28 11 7 13</rect></_>
    <_>
      <rect>
        28 25 1 1</rect></_>
    <_>
      <rect>
        28 26 1 1</rect></_>
    <_>
      <rect>
        29 6 7 4</rect></_>
    <_>
      <rect>
        29 14 2 1</rect></_>
    <_>
      <rect>
        29 14 7 5</rect></_>
    <_>
      <rect>
        29 14 7 6</rect></_>
    <_>
      <rect>
        30 11 5 4</rect></_>
    <_>
      <rect>
        30 14 4 3</rect></_>
    <_>
      <rect>
        32 14 6 11</rect></_>
    <_>
      <rect>
        33 31 5 4</rect></_>
    <_>
      <rect>
        34 10 5 3</rect></_>
    <_>
      <rect>
        34 13 5 3</rect></_>
    <_>
      <rect>
        35 5 5 11</rect></_>
    <_>
      <rect>
        35 9 5 8</rect></_>
    <_>
      <rect>
        37 12 2 1</rect></_>
    <_>
      <rect>
        37 34 3 3</rect></_>
    <_>
      <rect>
        39 11 3 2</rect></_>
    <_>
      <rect>
        40 32 3 2</rect></_>
    <_>
      <rect>
        41 15 3 3</rect></_>
    <_>
      <rect>
        41 19 3 2</rect></_>
    <_>
      <rect>
        43 22 2 1</rect></_>
    <_>
      <rect>
        44 0 2 7</rect></_>
    <_>
      <rect>
        47 20 1 1</rect></_>
    <_>
      <rect>
        47 25 1 1</rect></_></features></cascade>
</opencv_storage>
