<?xml version="1.0"?>
<opencv_storage>
<stage17>
  <maxWeakCount>10</maxWeakCount>
  <stageThreshold>-1.0215986967086792e+00</stageThreshold>
  <weakClassifiers>
    <_>
      <internalNodes>
        0 -1 120946 -1296410509 1641005754 -1605774893 6340995
        -490282817 -73895269 -1472087565 143310901</internalNodes>
      <leafValues>
        -7.0438796281814575e-01 1.5957446396350861e-01</leafValues></_>
    <_>
      <internalNodes>
        0 -1 44077 -1625575750 2063321604 -985538249 -1572240845
        -1375491846 -326598450 -349538021 990798914</internalNodes>
      <leafValues>
        -4.9996000528335571e-01 3.7931498885154724e-01</leafValues></_>
    <_>
      <internalNodes>
        0 -1 113922 -1727505928 -545042408 -2130521643 -1144889188
        -2105477062 -100417525 559069843 419978733</internalNodes>
      <leafValues>
        -7.8085815906524658e-01 2.4100770056247711e-01</leafValues></_>
    <_>
      <internalNodes>
        0 -1 3920 -497816898 -213851666 1130614 -528182446 -2147121865
        -652524928 -1006288827 -731618398</internalNodes>
      <leafValues>
        -5.2653616666793823e-01 3.8781267404556274e-01</leafValues></_>
    <_>
      <internalNodes>
        0 -1 135024 -885833133 53745971 2123131647 1495758807 -268490789
        -2064189441 1837071775 -1079052833</internalNodes>
      <leafValues>
        -3.1247976422309875e-01 6.6310912370681763e-01</leafValues></_>
    <_>
      <internalNodes>
        0 -1 46074 -43477945 -189234173 268435983 1554518023 -1034943217
        -1476377590 -218070517 -91740928</internalNodes>
      <leafValues>
        -6.3899832963943481e-01 3.2688918709754944e-01</leafValues></_>
    <_>
      <internalNodes>
        0 -1 79094 -608673801 -352324226 1995373811 -748537605
        -1073939105 -1820525487 300873201 -763062025</internalNodes>
      <leafValues>
        -4.3690890073776245e-01 5.1268178224563599e-01</leafValues></_>
    <_>
      <internalNodes>
        0 -1 159630 -1865982897 -531606770 67174538 283701251 1242480643
        402788363 -1860779664 -769464742</internalNodes>
      <leafValues>
        -5.1971185207366943e-01 4.6387881040573120e-01</leafValues></_>
    <_>
      <internalNodes>
        0 -1 59863 -2013082339 2140242012 -2122252087 1372407889
        -1924628218 -1635548950 143132867 181330249</internalNodes>
      <leafValues>
        -5.8899939060211182e-01 3.7709635496139526e-01</leafValues></_>
    <_>
      <internalNodes>
        0 -1 90671 -660646696 -217890302 -1358884585 -260009214
        -145309335 811698700 -1048427091 523718316</internalNodes>
      <leafValues>
        -5.8582258224487305e-01 4.1676360368728638e-01</leafValues></_></weakClassifiers></stage17>
</opencv_storage>
