<?xml version="1.0"?>
<opencv_storage>
<stage6>
  <maxWeakCount>6</maxWeakCount>
  <stageThreshold>-8.3524811267852783e-01</stageThreshold>
  <weakClassifiers>
    <_>
      <internalNodes>
        0 -1 134404 -140550657 -48802949 -750620225 -539631879
        -1147488001 -1328815918 -218175093 -16980611</internalNodes>
      <leafValues>
        -5.7029557228088379e-01 4.2828077077865601e-01</leafValues></_>
    <_>
      <internalNodes>
        0 -1 139366 -657535070 391419334 229443357 -1458721891
        -1307856710 -1340059638 -1495602518 -1464210017</internalNodes>
      <leafValues>
        -6.5457463264465332e-01 3.8587668538093567e-01</leafValues></_>
    <_>
      <internalNodes>
        0 -1 86303 2107291896 -40132036 -335380203 -81868371 -284501108
        -1956410584 696941272 -1960146627</internalNodes>
      <leafValues>
        -6.9798070192337036e-01 3.5505893826484680e-01</leafValues></_>
    <_>
      <internalNodes>
        0 -1 10189 -145562370 1963831330 -1736327149 -1753095655
        -1325371167 -1190770480 805339275 1845709251</internalNodes>
      <leafValues>
        -6.3162797689437866e-01 4.0096551179885864e-01</leafValues></_>
    <_>
      <internalNodes>
        0 -1 5365 341777919 -116972742 1094884146 1996976986 151295
        -1782294389 1233986327 2131457399</internalNodes>
      <leafValues>
        -6.5155035257339478e-01 3.7135493755340576e-01</leafValues></_>
    <_>
      <internalNodes>
        0 -1 121516 -1085910865 -892120940 -2144123759 2082312601
        -1759727761 -1414803312 -527784267 1137200272</internalNodes>
      <leafValues>
        -6.8329405784606934e-01 4.0533030033111572e-01</leafValues></_></weakClassifiers></stage6>
</opencv_storage>
