<?xml version="1.0"?>
<opencv_storage>
<stage7>
  <maxWeakCount>8</maxWeakCount>
  <stageThreshold>-1.0148726701736450e+00</stageThreshold>
  <weakClassifiers>
    <_>
      <internalNodes>
        0 -1 97989 -1212754182 -2125761588 -762242381 -333608547
        -644941074 -608587381 -595412525 -619022179</internalNodes>
      <leafValues>
        -7.2505092620849609e-01 2.4639768898487091e-01</leafValues></_>
    <_>
      <internalNodes>
        0 -1 114003 -1078829569 -146007623 -799239777 -3411555
        -1570127905 -91235957 520272863 -5218823</internalNodes>
      <leafValues>
        -5.7638603448867798e-01 4.0832072496414185e-01</leafValues></_>
    <_>
      <internalNodes>
        0 -1 112195 -235417392 1540852127 555733321 -573225059
        -204828436 -1423408507 -1995564616 -1932535471</internalNodes>
      <leafValues>
        -5.7747131586074829e-01 4.1191139817237854e-01</leafValues></_>
    <_>
      <internalNodes>
        0 -1 78111 -68094784 -1534143338 1344182357 811270241
        -1684344074 -1887293240 59815934 -1996760597</internalNodes>
      <leafValues>
        -6.0909241437911987e-01 4.1970729827880859e-01</leafValues></_>
    <_>
      <internalNodes>
        0 -1 117772 -1709550338 -819113584 1556518609 1955794952
        -341134770 -1056014085 1271438067 2142949073</internalNodes>
      <leafValues>
        -7.1976190805435181e-01 3.7724894285202026e-01</leafValues></_>
    <_>
      <internalNodes>
        0 -1 3559 -470812737 -317816977 -1358987331 -1965818384
        1710608134 -2008940705 -134962106 -523766349</internalNodes>
      <leafValues>
        -4.9194255471229553e-01 5.2836328744888306e-01</leafValues></_>
    <_>
      <internalNodes>
        0 -1 110052 -1129030414 -612214582 1481757139 1440612369
        -1247089593 -549302152 58889654 1362657293</internalNodes>
      <leafValues>
        -6.6240125894546509e-01 3.6811062693595886e-01</leafValues></_>
    <_>
      <internalNodes>
        0 -1 134460 -1148491271 -208223815 -1289563773 -178371695
        1678400466 -1852731007 -1182604405 1255734685</internalNodes>
      <leafValues>
        -6.1861026287078857e-01 3.9495980739593506e-01</leafValues></_></weakClassifiers></stage7>
</opencv_storage>
