<?xml version="1.0"?>
<opencv_storage>
<stage15>
  <maxWeakCount>9</maxWeakCount>
  <stageThreshold>-9.7511476278305054e-01</stageThreshold>
  <weakClassifiers>
    <_>
      <internalNodes>
        0 -1 130216 1060785151 -116932583 424896887 -1113996655
        -150806085 -1139715813 -1077743889 -46521911</internalNodes>
      <leafValues>
        -4.9892628192901611e-01 3.3607399463653564e-01</leafValues></_>
    <_>
      <internalNodes>
        0 -1 166364 -272636381 -2144945501 -1100443904 -1599081734
        -1351484160 1962340343 -951612128 -487066521</internalNodes>
      <leafValues>
        -4.0245991945266724e-01 4.4452124834060669e-01</leafValues></_>
    <_>
      <internalNodes>
        0 -1 70685 -1433531493 -34139623 1073684031 -268741257 254864059
        -1216641102 402542845 -67145537</internalNodes>
      <leafValues>
        -4.0568974614143372e-01 4.9016699194908142e-01</leafValues></_>
    <_>
      <internalNodes>
        0 -1 110472 -1302735105 -505982515 -1841200809 -1065626727
        -1717464661 197886090 -878933337 -1631794708</internalNodes>
      <leafValues>
        -5.0332278013229370e-01 4.0793776512145996e-01</leafValues></_>
    <_>
      <internalNodes>
        0 -1 57228 -486404898 -779693884 86655 279565008 -2106457173
        -1566371041 741413802 1729483253</internalNodes>
      <leafValues>
        -5.7238423824310303e-01 3.8893091678619385e-01</leafValues></_>
    <_>
      <internalNodes>
        0 -1 152918 -476603886 -489330044 536973405 -742324594 403677746
        134451776 51948038 1142940975</internalNodes>
      <leafValues>
        -4.9229824542999268e-01 4.5179247856140137e-01</leafValues></_>
    <_>
      <internalNodes>
        0 -1 123469 1340068504 -944728877 1208029497 1368772889
        -1030360695 -1207238169 1618894488 -1945776625</internalNodes>
      <leafValues>
        -5.4103368520736694e-01 4.1095098853111267e-01</leafValues></_>
    <_>
      <internalNodes>
        0 -1 16954 -824195473 -858874719 -1073621049 -402301684
        -787643904 1078564098 -1065121613 -1524141037</internalNodes>
      <leafValues>
        -5.6401032209396362e-01 3.9422994852066040e-01</leafValues></_>
    <_>
      <internalNodes>
        0 -1 120797 817026550 882213331 -737976967 462950800 1170260708
        -1874853878 -1971271633 -1663512441</internalNodes>
      <leafValues>
        -5.9842222929000854e-01 3.7112277746200562e-01</leafValues></_></weakClassifiers></stage15>
</opencv_storage>
