<?xml version="1.0"?>
<opencv_storage>
<stage12>
  <maxWeakCount>8</maxWeakCount>
  <stageThreshold>-9.8062682151794434e-01</stageThreshold>
  <weakClassifiers>
    <_>
      <internalNodes>
        0 -1 114307 -570435081 -537225508 -805070157 -623318157
        -1816937985 -74743013 -1431325979 -1346709319</internalNodes>
      <leafValues>
        -5.1523947715759277e-01 3.4274193644523621e-01</leafValues></_>
    <_>
      <internalNodes>
        0 -1 82851 1915810527 1370165654 1366647131 1526330649
        -1584864096 -1526168494 -697894501 194114557</internalNodes>
      <leafValues>
        -5.7465934753417969e-01 3.3360221982002258e-01</leafValues></_>
    <_>
      <internalNodes>
        0 -1 93217 -1145545474 569000648 -805231981 297351173 -32577010
        25413771 -1337535565 169529533</internalNodes>
      <leafValues>
        -8.2401096820831299e-01 2.2216238081455231e-01</leafValues></_>
    <_>
      <internalNodes>
        0 -1 3167 -673783969 -82316168 67633154 -615016046 -2096861297
        -1055227708 -1878489846 843923699</internalNodes>
      <leafValues>
        -5.4491525888442993e-01 3.8226446509361267e-01</leafValues></_>
    <_>
      <internalNodes>
        0 -1 112194 -204235248 -1223974704 1640172305 1800614345
        -2087984508 705364226 -616387590 -1944016631</internalNodes>
      <leafValues>
        -5.6819450855255127e-01 3.7666833400726318e-01</leafValues></_>
    <_>
      <internalNodes>
        0 -1 131025 -1200435702 425135143 1690879033 463317765
        1375977714 270925955 -1677509965 -1148353822</internalNodes>
      <leafValues>
        -5.4914671182632446e-01 3.8400289416313171e-01</leafValues></_>
    <_>
      <internalNodes>
        0 -1 10757 -1035737153 -743660986 -800862192 -872220342
        1350823943 -1873526625 834896944 -235538109</internalNodes>
      <leafValues>
        -4.9594122171401978e-01 4.6929761767387390e-01</leafValues></_>
    <_>
      <internalNodes>
        0 -1 104889 -1311320848 1008427281 1145213263 1401114949
        -1374500149 -1106280189 1213889323 -1996871207</internalNodes>
      <leafValues>
        -6.1136156320571899e-01 3.9805796742439270e-01</leafValues></_></weakClassifiers></stage12>
</opencv_storage>
