<?xml version="1.0"?>
<opencv_storage>
<stage9>
  <maxWeakCount>8</maxWeakCount>
  <stageThreshold>-1.0169928073883057e+00</stageThreshold>
  <weakClassifiers>
    <_>
      <internalNodes>
        0 -1 106171 -1103602434 1342143428 1342287507 -152104183
        -758196146 -348454723 -1716864505 2146357661</internalNodes>
      <leafValues>
        -7.9899495840072632e-01 1.6899618506431580e-01</leafValues></_>
    <_>
      <internalNodes>
        0 -1 4010 -644726530 2066697896 1478073359 -545730018 2145473198
        1229746572 -239339329 1397748447</internalNodes>
      <leafValues>
        -6.7580348253250122e-01 2.9165428876876831e-01</leafValues></_>
    <_>
      <internalNodes>
        0 -1 131256 -1799856899 -74681891 -1053830049 -201428475
        -1160846658 -290749269 -495001665 1043484909</internalNodes>
      <leafValues>
        -6.9583892822265625e-01 2.8978917002677917e-01</leafValues></_>
    <_>
      <internalNodes>
        0 -1 131002 1866852863 -1610137270 -603860752 -367791568
        -800851654 -1460557641 -106123833 -845952313</internalNodes>
      <leafValues>
        -5.4275631904602051e-01 4.4835075736045837e-01</leafValues></_>
    <_>
      <internalNodes>
        0 -1 5378 -328377861 -1713306590 1375784658 -619623501 95034763
        -314031993 1953457095 2062763967</internalNodes>
      <leafValues>
        -5.1249277591705322e-01 4.5146834850311279e-01</leafValues></_>
    <_>
      <internalNodes>
        0 -1 137204 -1667540649 1759474279 -754724673 -1283014439
        -1332165891 -626346871 -736041046 -546284607</internalNodes>
      <leafValues>
        -5.9728682041168213e-01 3.9103063941001892e-01</leafValues></_>
    <_>
      <internalNodes>
        0 -1 102232 -1112051493 -940587564 -599664301 -365084451
        -763571459 -811764967 -1176225369 -5581331</internalNodes>
      <leafValues>
        -5.3355491161346436e-01 4.5234051346778870e-01</leafValues></_>
    <_>
      <internalNodes>
        0 -1 141781 -644178548 -2050661797 823155613 525935261
        -982990376 791236616 -701308896 -1908410821</internalNodes>
      <leafValues>
        -5.4530274868011475e-01 4.7812500596046448e-01</leafValues></_></weakClassifiers></stage9>
</opencv_storage>
