<?xml version="1.0"?>
<opencv_storage>
<stage11>
  <maxWeakCount>9</maxWeakCount>
  <stageThreshold>-1.5680541992187500e+00</stageThreshold>
  <weakClassifiers>
    <_>
      <internalNodes>
        0 -1 63381 -1781344065 430675262 -1056901825 1509929823
        -1192647749 65064960 -203826513 536080871</internalNodes>
      <leafValues>
        -6.5551179647445679e-01 2.1861152350902557e-01</leafValues></_>
    <_>
      <internalNodes>
        0 -1 3002 -492837049 -2042305910 -1869527981 -1060705054
        1347924486 -1970961405 1431687168 -193465241</internalNodes>
      <leafValues>
        -4.7663745284080505e-01 4.2189770936965942e-01</leafValues></_>
    <_>
      <internalNodes>
        0 -1 88319 -202971169 -510338313 98304 -137889307 -251477887
        -519294775 -775634919 412617193</internalNodes>
      <leafValues>
        -8.4368795156478882e-01 2.4453634023666382e-01</leafValues></_>
    <_>
      <internalNodes>
        0 -1 162348 -151017952 1644656651 -1073639420 574630466
        1666152768 537053227 1353042436 -1058539569</internalNodes>
      <leafValues>
        -6.4229536056518555e-01 3.2864084839820862e-01</leafValues></_>
    <_>
      <internalNodes>
        0 -1 117693 -1165339394 -1046399272 -1701783822 1921344600
        -1325859793 -285089523 -1534925387 2099929593</internalNodes>
      <leafValues>
        -7.0794582366943359e-01 3.1635308265686035e-01</leafValues></_>
    <_>
      <internalNodes>
        0 -1 157340 -1405427849 -1901085063 -1887439170 -1983959833
        -1108873561 -1896878081 -437406300 -1032849689</internalNodes>
      <leafValues>
        -4.3976214528083801e-01 5.1977795362472534e-01</leafValues></_>
    <_>
      <internalNodes>
        0 -1 124566 7361615 463471052 50628705 165004737 1086334535
        630170019 -1475732850 -1696210041</internalNodes>
      <leafValues>
        -6.2205767631530762e-01 3.6361026763916016e-01</leafValues></_>
    <_>
      <internalNodes>
        0 -1 7868 -2117140481 -950253502 1099023645 -995436798
        -1056713825 204883980 1099104499 1162199381</internalNodes>
      <leafValues>
        -5.8564352989196777e-01 4.1196215152740479e-01</leafValues></_>
    <_>
      <internalNodes>
        0 -1 5520 -320909393 -326713554 1828712434 1656684004 -37798142
        -884936890 -59349209 -218105733</internalNodes>
      <leafValues>
        -4.4106322526931763e-01 5.4810237884521484e-01</leafValues></_></weakClassifiers></stage11>
</opencv_storage>
