<?xml version="1.0"?>
<opencv_storage>
<stage4>
  <maxWeakCount>6</maxWeakCount>
  <stageThreshold>-1.1386740207672119e+00</stageThreshold>
  <weakClassifiers>
    <_>
      <internalNodes>
        0 -1 79445 -69576994 -3711640 1884517619 -84043311 -1226661233
        -555775821 -91039241 -86314603</internalNodes>
      <leafValues>
        -7.3798304796218872e-01 3.1550800800323486e-01</leafValues></_>
    <_>
      <internalNodes>
        0 -1 74220 -1080533764 -15773248 -729567045 467622057
        -1146423798 -1422010354 -803537989 -821437929</internalNodes>
      <leafValues>
        -7.2910797595977783e-01 3.5112655162811279e-01</leafValues></_>
    <_>
      <internalNodes>
        0 -1 113440 -8135492 -2136323118 1351963382 12407705 -75314977
        -830269031 -120935699 -2000882007</internalNodes>
      <leafValues>
        -7.6746135950088501e-01 3.4534099698066711e-01</leafValues></_>
    <_>
      <internalNodes>
        0 -1 36305 -37228129 -640212084 -327085186 1500991809 139763407
        1502251393 302110907 972227071</internalNodes>
      <leafValues>
        -7.0672065019607544e-01 3.9833834767341614e-01</leafValues></_>
    <_>
      <internalNodes>
        0 -1 131112 -1132964387 -1837018948 1434636757 1436304333
        -1449083394 -347492220 -276247825 473454841</internalNodes>
      <leafValues>
        -7.8678369522094727e-01 3.5158503055572510e-01</leafValues></_>
    <_>
      <internalNodes>
        0 -1 58352 486200575 1507475808 7504923 1367318915 -1255486773
        -1886879722 -23858997 462809731</internalNodes>
      <leafValues>
        -6.4330029487609863e-01 4.2308929562568665e-01</leafValues></_></weakClassifiers></stage4>
</opencv_storage>
